<?xml version="1.0"?>
<opencv_storage>
<stage13>
  <maxWeakCount>100</maxWeakCount>
  <stageThreshold>-1.1173173189163208e+00</stageThreshold>
  <weakClassifiers>
    <_>
      <internalNodes>
        0 -1 50280 1.3886415399610996e-02</internalNodes>
      <leafValues>
        -6.4228788018226624e-02 4.6783626079559326e-01</leafValues></_>
    <_>
      <internalNodes>
        0 -1 9403 1.2638455256819725e-02</internalNodes>
      <leafValues>
        -8.8005855679512024e-02 3.7180805206298828e-01</leafValues></_>
    <_>
      <internalNodes>
        0 -1 474 1.2555441260337830e-01</internalNodes>
      <leafValues>
        -1.6035124659538269e-01 1.8502952158451080e-01</leafValues></_>
    <_>
      <internalNodes>
        0 -1 148034 -1.9570000469684601e-02</internalNodes>
      <leafValues>
        -3.8080134987831116e-01 5.9584796428680420e-02</leafValues></_>
    <_>
      <internalNodes>
        0 -1 24719 -4.7729313373565674e-03</internalNodes>
      <leafValues>
        2.1962805092334747e-01 -8.9816741645336151e-02</leafValues></_>
    <_>
      <internalNodes>
        0 -1 103045 -1.1578425765037537e-01</internalNodes>
      <leafValues>
        -4.4582682847976685e-01 3.6217022687196732e-02</leafValues></_>
    <_>
      <internalNodes>
        0 -1 36222 -5.3343903273344040e-03</internalNodes>
      <leafValues>
        1.9071616232395172e-01 -9.5678284764289856e-02</leafValues></_>
    <_>
      <internalNodes>
        0 -1 31778 1.6458798944950104e-01</internalNodes>
      <leafValues>
        3.7828907370567322e-02 -5.2367115020751953e-01</leafValues></_>
    <_>
      <internalNodes>
        0 -1 76538 3.8365309592336416e-03</internalNodes>
      <leafValues>
        -6.3946709036827087e-02 2.8121170401573181e-01</leafValues></_>
    <_>
      <internalNodes>
        0 -1 108432 -6.9576375186443329e-02</internalNodes>
      <leafValues>
        1.8976375460624695e-01 -8.9051909744739532e-02</leafValues></_>
    <_>
      <internalNodes>
        0 -1 141377 1.3028120156377554e-03</internalNodes>
      <leafValues>
        -1.0277957469224930e-01 1.7989115417003632e-01</leafValues></_>
    <_>
      <internalNodes>
        0 -1 10000 3.8148440420627594e-02</internalNodes>
      <leafValues>
        -4.8240114003419876e-02 3.5180744528770447e-01</leafValues></_>
    <_>
      <internalNodes>
        0 -1 120112 -5.6642778217792511e-02</internalNodes>
      <leafValues>
        -3.9285632967948914e-01 4.5288197696208954e-02</leafValues></_>
    <_>
      <internalNodes>
        0 -1 159404 1.2158226221799850e-02</internalNodes>
      <leafValues>
        -4.9907829612493515e-02 3.3952432870864868e-01</leafValues></_>
    <_>
      <internalNodes>
        0 -1 160484 3.6834077909588814e-03</internalNodes>
      <leafValues>
        -4.2710762470960617e-02 2.9726910591125488e-01</leafValues></_>
    <_>
      <internalNodes>
        0 -1 161361 -5.2299518138170242e-03</internalNodes>
      <leafValues>
        2.5991123914718628e-01 -5.7384319603443146e-02</leafValues></_>
    <_>
      <internalNodes>
        0 -1 133836 1.2860363349318504e-03</internalNodes>
      <leafValues>
        5.6704502552747726e-02 -2.4463549256324768e-01</leafValues></_>
    <_>
      <internalNodes>
        0 -1 144398 -2.9573119245469570e-03</internalNodes>
      <leafValues>
        -4.8954644799232483e-01 3.3905211836099625e-02</leafValues></_>
    <_>
      <internalNodes>
        0 -1 70635 -1.0199523530900478e-02</internalNodes>
      <leafValues>
        2.7054840326309204e-01 -5.2494455128908157e-02</leafValues></_>
    <_>
      <internalNodes>
        0 -1 97337 5.4050944745540619e-02</internalNodes>
      <leafValues>
        3.1371392309665680e-02 -4.8537844419479370e-01</leafValues></_>
    <_>
      <internalNodes>
        0 -1 67751 -1.8970363307744265e-03</internalNodes>
      <leafValues>
        1.7696131765842438e-01 -9.5087073743343353e-02</leafValues></_>
    <_>
      <internalNodes>
        0 -1 80834 -1.1203948408365250e-02</internalNodes>
      <leafValues>
        -5.3283709287643433e-01 3.0692607164382935e-02</leafValues></_>
    <_>
      <internalNodes>
        0 -1 155247 -6.2819328159093857e-03</internalNodes>
      <leafValues>
        -6.6869264841079712e-01 1.4865675941109657e-02</leafValues></_>
    <_>
      <internalNodes>
        0 -1 55917 8.7430417537689209e-02</internalNodes>
      <leafValues>
        3.3903855830430984e-02 -3.9228749275207520e-01</leafValues></_>
    <_>
      <internalNodes>
        0 -1 144002 7.4799254070967436e-04</internalNodes>
      <leafValues>
        3.6186944693326950e-02 -3.4025800228118896e-01</leafValues></_>
    <_>
      <internalNodes>
        0 -1 127366 -3.7096757441759109e-03</internalNodes>
      <leafValues>
        3.2821282744407654e-01 -3.8512069731950760e-02</leafValues></_>
    <_>
      <internalNodes>
        0 -1 114988 1.0190343018621206e-03</internalNodes>
      <leafValues>
        2.7249965816736221e-02 -4.8530521988868713e-01</leafValues></_>
    <_>
      <internalNodes>
        0 -1 141591 -7.4078671634197235e-02</internalNodes>
      <leafValues>
        -2.8654342889785767e-01 4.4271834194660187e-02</leafValues></_>
    <_>
      <internalNodes>
        0 -1 13387 -1.1589931324124336e-02</internalNodes>
      <leafValues>
        -3.7331756204366684e-02 3.3789706230163574e-01</leafValues></_>
    <_>
      <internalNodes>
        0 -1 58627 -4.1469961404800415e-02</internalNodes>
      <leafValues>
        3.8101455569267273e-01 -3.2549355179071426e-02</leafValues></_>
    <_>
      <internalNodes>
        0 -1 157366 -9.8680872470140457e-03</internalNodes>
      <leafValues>
        -6.7895126342773438e-01 2.1577088162302971e-02</leafValues></_>
    <_>
      <internalNodes>
        0 -1 58876 1.1333428556099534e-03</internalNodes>
      <leafValues>
        3.2790303230285645e-02 -3.8201838731765747e-01</leafValues></_>
    <_>
      <internalNodes>
        0 -1 59313 1.6849217936396599e-03</internalNodes>
      <leafValues>
        -9.7220063209533691e-02 1.3524179160594940e-01</leafValues></_>
    <_>
      <internalNodes>
        0 -1 143826 -8.7173539213836193e-04</internalNodes>
      <leafValues>
        -3.8591960072517395e-01 3.1871423125267029e-02</leafValues></_>
    <_>
      <internalNodes>
        0 -1 51708 1.7589041963219643e-03</internalNodes>
      <leafValues>
        -9.6227362751960754e-02 1.2521991133689880e-01</leafValues></_>
    <_>
      <internalNodes>
        0 -1 38812 -1.2703882530331612e-02</internalNodes>
      <leafValues>
        2.3027808964252472e-01 -7.8846611082553864e-02</leafValues></_>
    <_>
      <internalNodes>
        0 -1 125672 -2.6325777173042297e-02</internalNodes>
      <leafValues>
        1.3164852559566498e-01 -9.8684206604957581e-02</leafValues></_>
    <_>
      <internalNodes>
        0 -1 138714 4.4779800809919834e-03</internalNodes>
      <leafValues>
        -7.2786279022693634e-02 2.2747510671615601e-01</leafValues></_>
    <_>
      <internalNodes>
        0 -1 154813 4.3659005314111710e-05</internalNodes>
      <leafValues>
        1.0793884098529816e-01 -1.3800925016403198e-01</leafValues></_>
    <_>
      <internalNodes>
        0 -1 140581 2.1794529631733894e-02</internalNodes>
      <leafValues>
        -6.0898691415786743e-02 2.3730346560478210e-01</leafValues></_>
    <_>
      <internalNodes>
        0 -1 89288 -8.8057041168212891e-02</internalNodes>
      <leafValues>
        -5.9992879629135132e-01 1.9394952803850174e-02</leafValues></_>
    <_>
      <internalNodes>
        0 -1 61389 2.4462860077619553e-02</internalNodes>
      <leafValues>
        2.4574212729930878e-02 -5.0595980882644653e-01</leafValues></_>
    <_>
      <internalNodes>
        0 -1 156446 2.6041254401206970e-02</internalNodes>
      <leafValues>
        -2.2749245166778564e-02 6.0825359821319580e-01</leafValues></_>
    <_>
      <internalNodes>
        0 -1 141816 3.7339113652706146e-02</internalNodes>
      <leafValues>
        5.3185675293207169e-02 -2.8930443525314331e-01</leafValues></_>
    <_>
      <internalNodes>
        0 -1 155791 -1.8216595344711095e-04</internalNodes>
      <leafValues>
        -1.6813740134239197e-01 7.3599159717559814e-02</leafValues></_>
    <_>
      <internalNodes>
        0 -1 57497 -8.4654316306114197e-02</internalNodes>
      <leafValues>
        -4.0667435526847839e-01 3.1425636261701584e-02</leafValues></_>
    <_>
      <internalNodes>
        0 -1 117084 -4.5555005781352520e-03</internalNodes>
      <leafValues>
        1.7423105239868164e-01 -8.0100305378437042e-02</leafValues></_>
    <_>
      <internalNodes>
        0 -1 2455 6.8212514743208885e-03</internalNodes>
      <leafValues>
        -1.3245256245136261e-01 9.4472296535968781e-02</leafValues></_>
    <_>
      <internalNodes>
        0 -1 14741 -5.8268599212169647e-02</internalNodes>
      <leafValues>
        4.6399855613708496e-01 -4.8908188939094543e-02</leafValues></_>
    <_>
      <internalNodes>
        0 -1 22109 1.7584394663572311e-02</internalNodes>
      <leafValues>
        -7.1882203221321106e-02 1.7341196537017822e-01</leafValues></_>
    <_>
      <internalNodes>
        0 -1 70801 -5.4364209063351154e-04</internalNodes>
      <leafValues>
        -1.5183912217617035e-01 8.3436615765094757e-02</leafValues></_>
    <_>
      <internalNodes>
        0 -1 52506 -1.0349838063120842e-02</internalNodes>
      <leafValues>
        1.7035384476184845e-01 -7.9214923083782196e-02</leafValues></_>
    <_>
      <internalNodes>
        0 -1 49510 -1.0228781029582024e-02</internalNodes>
      <leafValues>
        -6.0070079565048218e-01 2.2865699604153633e-02</leafValues></_>
    <_>
      <internalNodes>
        0 -1 69536 6.3162287697196007e-03</internalNodes>
      <leafValues>
        -4.3091386556625366e-02 3.2421350479125977e-01</leafValues></_>
    <_>
      <internalNodes>
        0 -1 8736 6.6526662558317184e-03</internalNodes>
      <leafValues>
        -7.6043210923671722e-02 1.8694399297237396e-01</leafValues></_>
    <_>
      <internalNodes>
        0 -1 8784 -3.3965073525905609e-03</internalNodes>
      <leafValues>
        2.0632317662239075e-01 -8.3359934389591217e-02</leafValues></_>
    <_>
      <internalNodes>
        0 -1 100860 -7.1748510003089905e-02</internalNodes>
      <leafValues>
        -4.2857328057289124e-01 3.5338509827852249e-02</leafValues></_>
    <_>
      <internalNodes>
        0 -1 142828 -1.1847964196931571e-04</internalNodes>
      <leafValues>
        -1.5961654484272003e-01 7.9043671488761902e-02</leafValues></_>
    <_>
      <internalNodes>
        0 -1 142666 6.7134783603250980e-04</internalNodes>
      <leafValues>
        -9.5704950392246246e-02 1.7841480672359467e-01</leafValues></_>
    <_>
      <internalNodes>
        0 -1 143382 -2.2303684090729803e-04</internalNodes>
      <leafValues>
        1.3015924394130707e-01 -1.1147414892911911e-01</leafValues></_>
    <_>
      <internalNodes>
        0 -1 1423 7.8415721654891968e-02</internalNodes>
      <leafValues>
        -1.8230190500617027e-02 8.2737034559249878e-01</leafValues></_>
    <_>
      <internalNodes>
        0 -1 141772 -1.5371161699295044e-01</internalNodes>
      <leafValues>
        1.0824533551931381e-01 -1.2654186785221100e-01</leafValues></_>
    <_>
      <internalNodes>
        0 -1 148523 -6.2551528215408325e-02</internalNodes>
      <leafValues>
        -8.5720665752887726e-02 2.2032611072063446e-01</leafValues></_>
    <_>
      <internalNodes>
        0 -1 153469 -5.7976581156253815e-03</internalNodes>
      <leafValues>
        2.5322049856185913e-01 -5.7815097272396088e-02</leafValues></_>
    <_>
      <internalNodes>
        0 -1 158457 4.7910790890455246e-03</internalNodes>
      <leafValues>
        2.1832643076777458e-02 -7.5683951377868652e-01</leafValues></_>
    <_>
      <internalNodes>
        0 -1 113717 -1.1082507669925690e-01</internalNodes>
      <leafValues>
        -9.2545276880264282e-01 1.0145073756575584e-02</leafValues></_>
    <_>
      <internalNodes>
        0 -1 100562 1.3284422457218170e-03</internalNodes>
      <leafValues>
        1.8127994611859322e-02 -6.1711275577545166e-01</leafValues></_>
    <_>
      <internalNodes>
        0 -1 121358 4.1970219463109970e-03</internalNodes>
      <leafValues>
        1.7548048868775368e-02 -6.0706186294555664e-01</leafValues></_>
    <_>
      <internalNodes>
        0 -1 142629 -4.7114891931414604e-03</internalNodes>
      <leafValues>
        6.2957900762557983e-01 -2.1930886432528496e-02</leafValues></_>
    <_>
      <internalNodes>
        0 -1 150820 4.9921393394470215e-02</internalNodes>
      <leafValues>
        2.3372313007712364e-02 -5.8671468496322632e-01</leafValues></_>
    <_>
      <internalNodes>
        0 -1 121798 2.2457005456089973e-02</internalNodes>
      <leafValues>
        -6.1923876404762268e-02 2.0219361782073975e-01</leafValues></_>
    <_>
      <internalNodes>
        0 -1 49655 -6.2015571165829897e-04</internalNodes>
      <leafValues>
        1.2356251478195190e-01 -1.0164130479097366e-01</leafValues></_>
    <_>
      <internalNodes>
        0 -1 3619 -1.2153003364801407e-02</internalNodes>
      <leafValues>
        -5.8433741331100464e-01 2.2195285186171532e-02</leafValues></_>
    <_>
      <internalNodes>
        0 -1 117436 8.8889722246676683e-04</internalNodes>
      <leafValues>
        2.9940886422991753e-02 -4.2043542861938477e-01</leafValues></_>
    <_>
      <internalNodes>
        0 -1 8 -4.0180571377277374e-03</internalNodes>
      <leafValues>
        -5.3533662110567093e-02 2.3246039450168610e-01</leafValues></_>
    <_>
      <internalNodes>
        0 -1 23404 -1.8931552767753601e-02</internalNodes>
      <leafValues>
        1.5242557972669601e-02 -7.7858120203018188e-01</leafValues></_>
    <_>
      <internalNodes>
        0 -1 30956 2.0146982744336128e-02</internalNodes>
      <leafValues>
        8.5300855338573456e-02 -1.4389385282993317e-01</leafValues></_>
    <_>
      <internalNodes>
        0 -1 47340 5.0732959061861038e-03</internalNodes>
      <leafValues>
        -4.3674822896718979e-02 3.1276041269302368e-01</leafValues></_>
    <_>
      <internalNodes>
        0 -1 118889 3.8801418850198388e-04</internalNodes>
      <leafValues>
        -1.1365105211734772e-01 1.1096324026584625e-01</leafValues></_>
    <_>
      <internalNodes>
        0 -1 85188 1.0130393505096436e-01</internalNodes>
      <leafValues>
        3.9280354976654053e-02 -3.6603057384490967e-01</leafValues></_>
    <_>
      <internalNodes>
        0 -1 100581 -3.4666741266846657e-03</internalNodes>
      <leafValues>
        1.6040368005633354e-02 -7.0929509401321411e-01</leafValues></_>
    <_>
      <internalNodes>
        0 -1 44160 9.4887483865022659e-03</internalNodes>
      <leafValues>
        -3.5677295178174973e-02 3.8686099648475647e-01</leafValues></_>
    <_>
      <internalNodes>
        0 -1 79197 -5.0924934446811676e-02</internalNodes>
      <leafValues>
        -6.7705440521240234e-01 2.0727753639221191e-02</leafValues></_>
    <_>
      <internalNodes>
        0 -1 128011 1.7229854129254818e-03</internalNodes>
      <leafValues>
        -4.7431547194719315e-02 2.8506013751029968e-01</leafValues></_>
    <_>
      <internalNodes>
        0 -1 49404 1.1448880657553673e-02</internalNodes>
      <leafValues>
        2.4568423628807068e-02 -6.1852598190307617e-01</leafValues></_>
    <_>
      <internalNodes>
        0 -1 151834 1.3297952245920897e-03</internalNodes>
      <leafValues>
        5.1597651094198227e-02 -2.5997096300125122e-01</leafValues></_>
    <_>
      <internalNodes>
        0 -1 128039 1.5218047425150871e-02</internalNodes>
      <leafValues>
        -4.8228822648525238e-02 2.8647741675376892e-01</leafValues></_>
    <_>
      <internalNodes>
        0 -1 22478 -7.3927462100982666e-02</internalNodes>
      <leafValues>
        -3.9924207329750061e-01 3.3100865781307220e-02</leafValues></_>
    <_>
      <internalNodes>
        0 -1 86440 -1.7667436972260475e-02</internalNodes>
      <leafValues>
        2.1810281276702881e-01 -6.6766694188117981e-02</leafValues></_>
    <_>
      <internalNodes>
        0 -1 111480 -6.9952541962265968e-03</internalNodes>
      <leafValues>
        5.0633037090301514e-01 -2.6632543653249741e-02</leafValues></_>
    <_>
      <internalNodes>
        0 -1 16573 -8.3383135497570038e-03</internalNodes>
      <leafValues>
        -7.4201029539108276e-01 1.8003333359956741e-02</leafValues></_>
    <_>
      <internalNodes>
        0 -1 109992 -1.4476388692855835e-01</internalNodes>
      <leafValues>
        -4.7066628932952881e-01 2.3382822051644325e-02</leafValues></_>
    <_>
      <internalNodes>
        0 -1 146310 -6.2633212655782700e-03</internalNodes>
      <leafValues>
        1.5428714454174042e-01 -9.7177855670452118e-02</leafValues></_>
    <_>
      <internalNodes>
        0 -1 17455 6.7786328494548798e-02</internalNodes>
      <leafValues>
        2.0808976143598557e-02 -6.1895865201950073e-01</leafValues></_>
    <_>
      <internalNodes>
        0 -1 135698 -9.7828269004821777e-02</internalNodes>
      <leafValues>
        -5.8884954452514648e-01 2.3144271224737167e-02</leafValues></_>
    <_>
      <internalNodes>
        0 -1 122412 -6.6198210697621107e-04</internalNodes>
      <leafValues>
        -3.8598582148551941e-01 3.4093800932168961e-02</leafValues></_>
    <_>
      <internalNodes>
        0 -1 49487 -6.7487582564353943e-03</internalNodes>
      <leafValues>
        3.8632133603096008e-01 -3.5874981433153152e-02</leafValues></_>
    <_>
      <internalNodes>
        0 -1 60987 2.7567908167839050e-02</internalNodes>
      <leafValues>
        7.3668211698532104e-02 -1.8920946121215820e-01</leafValues></_>
    <_>
      <internalNodes>
        0 -1 113209 -2.4481313303112984e-03</internalNodes>
      <leafValues>
        1.2482718378305435e-01 -1.0787155479192734e-01</leafValues></_>
    <_>
      <internalNodes>
        0 -1 121155 3.6068451590836048e-03</internalNodes>
      <leafValues>
        2.4929312989115715e-02 -5.6594598293304443e-01</leafValues></_></weakClassifiers></stage13>
</opencv_storage>
