<?xml version="1.0"?>
<opencv_storage>
<stage10>
  <maxWeakCount>97</maxWeakCount>
  <stageThreshold>-1.0667562484741211e+00</stageThreshold>
  <weakClassifiers>
    <_>
      <internalNodes>
        0 -1 3319 3.9250567555427551e-02</internalNodes>
      <leafValues>
        -1.3029827177524567e-01 4.7682118415832520e-01</leafValues></_>
    <_>
      <internalNodes>
        0 -1 71364 7.4510062113404274e-03</internalNodes>
      <leafValues>
        -1.2945622205734253e-01 3.9365637302398682e-01</leafValues></_>
    <_>
      <internalNodes>
        0 -1 161503 -5.6238984689116478e-03</internalNodes>
      <leafValues>
        3.3229517936706543e-01 -1.2054391205310822e-01</leafValues></_>
    <_>
      <internalNodes>
        0 -1 148054 -2.4967815726995468e-02</internalNodes>
      <leafValues>
        -2.0852935314178467e-01 1.2364216148853302e-01</leafValues></_>
    <_>
      <internalNodes>
        0 -1 106777 -1.1335193412378430e-03</internalNodes>
      <leafValues>
        1.3383495807647705e-01 -1.8474774062633514e-01</leafValues></_>
    <_>
      <internalNodes>
        0 -1 161237 9.4843767583370209e-03</internalNodes>
      <leafValues>
        -7.5678884983062744e-02 4.0765649080276489e-01</leafValues></_>
    <_>
      <internalNodes>
        0 -1 74346 -3.1220398843288422e-02</internalNodes>
      <leafValues>
        2.5263044238090515e-01 -8.0943420529365540e-02</leafValues></_>
    <_>
      <internalNodes>
        0 -1 143963 7.3019240517169237e-04</internalNodes>
      <leafValues>
        5.8003723621368408e-02 -3.9664083719253540e-01</leafValues></_>
    <_>
      <internalNodes>
        0 -1 144718 8.5432868218049407e-04</internalNodes>
      <leafValues>
        3.9756212383508682e-02 -4.8293015360832214e-01</leafValues></_>
    <_>
      <internalNodes>
        0 -1 114244 -6.7303851246833801e-02</internalNodes>
      <leafValues>
        -6.0707181692123413e-01 3.6923740059137344e-02</leafValues></_>
    <_>
      <internalNodes>
        0 -1 109615 -1.6577005386352539e-01</internalNodes>
      <leafValues>
        -4.4840392470359802e-01 4.3084662407636642e-02</leafValues></_>
    <_>
      <internalNodes>
        0 -1 678 1.2610818445682526e-01</internalNodes>
      <leafValues>
        -1.0094766318798065e-01 2.2129929065704346e-01</leafValues></_>
    <_>
      <internalNodes>
        0 -1 35923 1.7469797283411026e-02</internalNodes>
      <leafValues>
        -5.9903357177972794e-02 3.3080482482910156e-01</leafValues></_>
    <_>
      <internalNodes>
        0 -1 13035 -1.1131826788187027e-02</internalNodes>
      <leafValues>
        3.0736723542213440e-01 -7.3364153504371643e-02</leafValues></_>
    <_>
      <internalNodes>
        0 -1 124165 -9.0315714478492737e-02</internalNodes>
      <leafValues>
        2.3001460731029510e-01 -8.9907094836235046e-02</leafValues></_>
    <_>
      <internalNodes>
        0 -1 152908 -8.4580748807638884e-04</internalNodes>
      <leafValues>
        -4.5520022511482239e-01 4.7576744109392166e-02</leafValues></_>
    <_>
      <internalNodes>
        0 -1 151704 -6.7846709862351418e-03</internalNodes>
      <leafValues>
        2.7430513501167297e-01 -7.4555672705173492e-02</leafValues></_>
    <_>
      <internalNodes>
        0 -1 159549 2.7189601678401232e-04</internalNodes>
      <leafValues>
        8.2237944006919861e-02 -2.4090877175331116e-01</leafValues></_>
    <_>
      <internalNodes>
        0 -1 122708 3.3926606178283691e-02</internalNodes>
      <leafValues>
        -2.9753290116786957e-02 5.2397310733795166e-01</leafValues></_>
    <_>
      <internalNodes>
        0 -1 8927 1.0352477431297302e-02</internalNodes>
      <leafValues>
        -8.0609083175659180e-02 2.2015593945980072e-01</leafValues></_>
    <_>
      <internalNodes>
        0 -1 127936 5.0225632730871439e-04</internalNodes>
      <leafValues>
        5.5338293313980103e-02 -3.3554393053054810e-01</leafValues></_>
    <_>
      <internalNodes>
        0 -1 24681 -9.7745910286903381e-02</internalNodes>
      <leafValues>
        -7.7201610803604126e-01 2.1027911454439163e-02</leafValues></_>
    <_>
      <internalNodes>
        0 -1 113665 2.0488747395575047e-03</internalNodes>
      <leafValues>
        -1.0776501893997192e-01 1.6729883849620819e-01</leafValues></_>
    <_>
      <internalNodes>
        0 -1 139350 4.4742263853549957e-03</internalNodes>
      <leafValues>
        -9.8085485398769379e-02 1.7016127705574036e-01</leafValues></_>
    <_>
      <internalNodes>
        0 -1 108595 -3.3154725097119808e-03</internalNodes>
      <leafValues>
        -4.4065165519714355e-01 4.0100857615470886e-02</leafValues></_>
    <_>
      <internalNodes>
        0 -1 44861 7.6038995757699013e-03</internalNodes>
      <leafValues>
        -6.5582245588302612e-02 2.5510600209236145e-01</leafValues></_>
    <_>
      <internalNodes>
        0 -1 81948 3.7940636277198792e-02</internalNodes>
      <leafValues>
        -7.5788758695125580e-02 2.2467064857482910e-01</leafValues></_>
    <_>
      <internalNodes>
        0 -1 129787 -3.1476613366976380e-04</internalNodes>
      <leafValues>
        -2.4146029353141785e-01 6.9399058818817139e-02</leafValues></_>
    <_>
      <internalNodes>
        0 -1 109710 4.5312289148569107e-03</internalNodes>
      <leafValues>
        -6.7035190761089325e-02 2.6067590713500977e-01</leafValues></_>
    <_>
      <internalNodes>
        0 -1 109200 -7.5857099145650864e-03</internalNodes>
      <leafValues>
        4.3248760700225830e-01 -5.2258744835853577e-02</leafValues></_>
    <_>
      <internalNodes>
        0 -1 162151 -1.4434395357966423e-02</internalNodes>
      <leafValues>
        -5.1331795752048492e-02 3.1625300645828247e-01</leafValues></_>
    <_>
      <internalNodes>
        0 -1 108804 -1.0783749166876078e-03</internalNodes>
      <leafValues>
        1.3720896840095520e-01 -1.2685997784137726e-01</leafValues></_>
    <_>
      <internalNodes>
        0 -1 120367 2.1630418486893177e-03</internalNodes>
      <leafValues>
        3.3258717507123947e-02 -5.1267319917678833e-01</leafValues></_>
    <_>
      <internalNodes>
        0 -1 136545 -4.8642158508300781e-03</internalNodes>
      <leafValues>
        1.7118314281105995e-02 -9.1402202844619751e-01</leafValues></_>
    <_>
      <internalNodes>
        0 -1 68124 1.2472408125177026e-03</internalNodes>
      <leafValues>
        2.5950141251087189e-02 -5.3557533025741577e-01</leafValues></_>
    <_>
      <internalNodes>
        0 -1 6665 1.6434899298474193e-03</internalNodes>
      <leafValues>
        -6.1553481966257095e-02 2.8376635909080505e-01</leafValues></_>
    <_>
      <internalNodes>
        0 -1 160964 -7.4822148308157921e-03</internalNodes>
      <leafValues>
        -4.5209172368049622e-01 3.5994809120893478e-02</leafValues></_>
    <_>
      <internalNodes>
        0 -1 127712 4.0994811803102493e-02</internalNodes>
      <leafValues>
        -3.8377635180950165e-02 4.7019925713539124e-01</leafValues></_>
    <_>
      <internalNodes>
        0 -1 117865 6.4865662716329098e-04</internalNodes>
      <leafValues>
        5.0133597105741501e-02 -3.4345197677612305e-01</leafValues></_>
    <_>
      <internalNodes>
        0 -1 114377 1.7025419510900974e-03</internalNodes>
      <leafValues>
        -5.3823150694370270e-02 2.8295591473579407e-01</leafValues></_>
    <_>
      <internalNodes>
        0 -1 160979 1.4629022916778922e-04</internalNodes>
      <leafValues>
        8.4351442754268646e-02 -1.8998546898365021e-01</leafValues></_>
    <_>
      <internalNodes>
        0 -1 121237 -5.1365594845265150e-04</internalNodes>
      <leafValues>
        -3.2755097746849060e-01 4.7115553170442581e-02</leafValues></_>
    <_>
      <internalNodes>
        0 -1 152824 -1.4916628599166870e-02</internalNodes>
      <leafValues>
        2.4225093424320221e-01 -6.7313387989997864e-02</leafValues></_>
    <_>
      <internalNodes>
        0 -1 152581 1.5978738665580750e-02</internalNodes>
      <leafValues>
        -7.2285369038581848e-02 2.7319523692131042e-01</leafValues></_>
    <_>
      <internalNodes>
        0 -1 133776 -4.8103132285177708e-03</internalNodes>
      <leafValues>
        -5.7782006263732910e-01 2.9906004667282104e-02</leafValues></_>
    <_>
      <internalNodes>
        0 -1 80736 -4.4403187930583954e-03</internalNodes>
      <leafValues>
        1.8319198489189148e-01 -8.7004855275154114e-02</leafValues></_>
    <_>
      <internalNodes>
        0 -1 70597 -8.1456713378429413e-03</internalNodes>
      <leafValues>
        -5.2217137813568115e-01 3.4756038337945938e-02</leafValues></_>
    <_>
      <internalNodes>
        0 -1 36872 2.0651724189519882e-03</internalNodes>
      <leafValues>
        -7.5856938958168030e-02 2.1528448164463043e-01</leafValues></_>
    <_>
      <internalNodes>
        0 -1 48104 -4.5989090576767921e-03</internalNodes>
      <leafValues>
        1.3617767393589020e-01 -1.2413419783115387e-01</leafValues></_>
    <_>
      <internalNodes>
        0 -1 11444 3.7759076803922653e-03</internalNodes>
      <leafValues>
        -7.0249050855636597e-02 2.1988068521022797e-01</leafValues></_>
    <_>
      <internalNodes>
        0 -1 13004 -1.9945442909374833e-04</internalNodes>
      <leafValues>
        -1.8598352372646332e-01 8.8798955082893372e-02</leafValues></_>
    <_>
      <internalNodes>
        0 -1 58434 -7.9578030854463577e-03</internalNodes>
      <leafValues>
        3.0109673738479614e-01 -4.8262313008308411e-02</leafValues></_>
    <_>
      <internalNodes>
        0 -1 141027 -2.9398273909464478e-04</internalNodes>
      <leafValues>
        -2.2171701490879059e-01 6.6355168819427490e-02</leafValues></_>
    <_>
      <internalNodes>
        0 -1 36323 5.0843390636146069e-03</internalNodes>
      <leafValues>
        -1.0775012522935867e-01 1.4514243602752686e-01</leafValues></_>
    <_>
      <internalNodes>
        0 -1 24441 -1.1389019899070263e-02</internalNodes>
      <leafValues>
        4.4302904605865479e-01 -3.3008340746164322e-02</leafValues></_>
    <_>
      <internalNodes>
        0 -1 59492 -3.2865288085304201e-04</internalNodes>
      <leafValues>
        -2.4984700977802277e-01 7.1826897561550140e-02</leafValues></_>
    <_>
      <internalNodes>
        0 -1 59489 -1.1709613027051091e-03</internalNodes>
      <leafValues>
        -3.8449952006340027e-01 3.7487044930458069e-02</leafValues></_>
    <_>
      <internalNodes>
        0 -1 127633 -8.5035525262355804e-04</internalNodes>
      <leafValues>
        1.5286892652511597e-01 -8.9134864509105682e-02</leafValues></_>
    <_>
      <internalNodes>
        0 -1 69108 -2.9816180467605591e-02</internalNodes>
      <leafValues>
        -4.5607781410217285e-01 3.6816943436861038e-02</leafValues></_>
    <_>
      <internalNodes>
        0 -1 102742 -2.8185849077999592e-03</internalNodes>
      <leafValues>
        2.7250066399574280e-01 -6.0085855424404144e-02</leafValues></_>
    <_>
      <internalNodes>
        0 -1 44522 -4.4459287077188492e-02</internalNodes>
      <leafValues>
        -4.8142209649085999e-02 3.2098338007926941e-01</leafValues></_>
    <_>
      <internalNodes>
        0 -1 69895 -4.6611241996288300e-03</internalNodes>
      <leafValues>
        2.6876032352447510e-02 -6.7815732955932617e-01</leafValues></_>
    <_>
      <internalNodes>
        0 -1 139294 -1.6552624292671680e-03</internalNodes>
      <leafValues>
        1.4340326189994812e-01 -1.0824400186538696e-01</leafValues></_>
    <_>
      <internalNodes>
        0 -1 77797 -1.9329660572111607e-03</internalNodes>
      <leafValues>
        -7.8738898038864136e-01 1.7658617347478867e-02</leafValues></_>
    <_>
      <internalNodes>
        0 -1 135468 1.3697289396077394e-03</internalNodes>
      <leafValues>
        -8.3060264587402344e-02 1.7862486839294434e-01</leafValues></_>
    <_>
      <internalNodes>
        0 -1 124345 -2.6843124069273472e-03</internalNodes>
      <leafValues>
        1.6486378014087677e-01 -9.0288303792476654e-02</leafValues></_>
    <_>
      <internalNodes>
        0 -1 85075 -8.0723106861114502e-02</internalNodes>
      <leafValues>
        -3.5518744587898254e-01 5.6325111538171768e-02</leafValues></_>
    <_>
      <internalNodes>
        0 -1 151919 1.1421486735343933e-02</internalNodes>
      <leafValues>
        1.6563726589083672e-02 -7.9115068912506104e-01</leafValues></_>
    <_>
      <internalNodes>
        0 -1 86258 -1.8901159986853600e-02</internalNodes>
      <leafValues>
        2.6365146040916443e-01 -5.7467591017484665e-02</leafValues></_>
    <_>
      <internalNodes>
        0 -1 84033 -5.3514603525400162e-02</internalNodes>
      <leafValues>
        -2.5884908437728882e-01 7.0157229900360107e-02</leafValues></_>
    <_>
      <internalNodes>
        0 -1 136178 1.1234367266297340e-02</internalNodes>
      <leafValues>
        4.7156382352113724e-02 -3.0942687392234802e-01</leafValues></_>
    <_>
      <internalNodes>
        0 -1 55278 2.6967806741595268e-02</internalNodes>
      <leafValues>
        9.0438507497310638e-02 -1.5546512603759766e-01</leafValues></_>
    <_>
      <internalNodes>
        0 -1 52820 -2.9698002617806196e-04</internalNodes>
      <leafValues>
        -2.3151992261409760e-01 6.3049212098121643e-02</leafValues></_>
    <_>
      <internalNodes>
        0 -1 13329 -6.7442520521581173e-03</internalNodes>
      <leafValues>
        3.0294206738471985e-01 -4.9880743026733398e-02</leafValues></_>
    <_>
      <internalNodes>
        0 -1 70625 1.0820646770298481e-02</internalNodes>
      <leafValues>
        2.3245768621563911e-02 -6.5141397714614868e-01</leafValues></_>
    <_>
      <internalNodes>
        0 -1 148118 2.0533478527795523e-04</internalNodes>
      <leafValues>
        6.3312299549579620e-02 -2.1457192301750183e-01</leafValues></_>
    <_>
      <internalNodes>
        0 -1 98481 6.5829724073410034e-02</internalNodes>
      <leafValues>
        -1.9399896264076233e-02 7.2155457735061646e-01</leafValues></_>
    <_>
      <internalNodes>
        0 -1 174 9.3705877661705017e-03</internalNodes>
      <leafValues>
        -6.5051928162574768e-02 2.3105490207672119e-01</leafValues></_>
    <_>
      <internalNodes>
        0 -1 22034 2.1788913756608963e-02</internalNodes>
      <leafValues>
        -7.1796022355556488e-02 1.9990110397338867e-01</leafValues></_>
    <_>
      <internalNodes>
        0 -1 96679 -6.8696355447173119e-04</internalNodes>
      <leafValues>
        1.6485977172851562e-01 -1.2192990630865097e-01</leafValues></_>
    <_>
      <internalNodes>
        0 -1 97122 3.0373712070286274e-04</internalNodes>
      <leafValues>
        -1.2003453075885773e-01 1.2778230011463165e-01</leafValues></_>
    <_>
      <internalNodes>
        0 -1 88839 9.7601898014545441e-03</internalNodes>
      <leafValues>
        2.8368178755044937e-02 -5.5368393659591675e-01</leafValues></_>
    <_>
      <internalNodes>
        0 -1 34925 1.3819136656820774e-02</internalNodes>
      <leafValues>
        -3.1949039548635483e-02 4.7988516092300415e-01</leafValues></_>
    <_>
      <internalNodes>
        0 -1 24432 5.1318539772182703e-04</internalNodes>
      <leafValues>
        7.5770333409309387e-02 -2.3174482583999634e-01</leafValues></_>
    <_>
      <internalNodes>
        0 -1 61206 -3.2849937677383423e-02</internalNodes>
      <leafValues>
        4.0226387977600098e-01 -3.8267258554697037e-02</leafValues></_>
    <_>
      <internalNodes>
        0 -1 158517 -1.0201409459114075e-01</internalNodes>
      <leafValues>
        -4.6109518408775330e-01 3.1212901696562767e-02</leafValues></_>
    <_>
      <internalNodes>
        0 -1 38748 4.3992875143885612e-03</internalNodes>
      <leafValues>
        -9.1131076216697693e-02 1.6177117824554443e-01</leafValues></_>
    <_>
      <internalNodes>
        0 -1 148118 -5.2933680126443505e-04</internalNodes>
      <leafValues>
        -3.0876839160919189e-01 5.0685305148363113e-02</leafValues></_>
    <_>
      <internalNodes>
        0 -1 146082 -6.4851403236389160e-02</internalNodes>
      <leafValues>
        5.2090424299240112e-01 -3.0551368370652199e-02</leafValues></_>
    <_>
      <internalNodes>
        0 -1 11087 -1.2203375808894634e-02</internalNodes>
      <leafValues>
        2.6874536275863647e-01 -5.4591815918684006e-02</leafValues></_>
    <_>
      <internalNodes>
        0 -1 22693 1.0235974332317710e-03</internalNodes>
      <leafValues>
        -8.2515291869640350e-02 1.9687195122241974e-01</leafValues></_>
    <_>
      <internalNodes>
        0 -1 60120 -2.2475383593700826e-04</internalNodes>
      <leafValues>
        -2.1208801865577698e-01 7.6559886336326599e-02</leafValues></_>
    <_>
      <internalNodes>
        0 -1 141061 3.2623084262013435e-03</internalNodes>
      <leafValues>
        -4.8159319907426834e-02 2.8507158160209656e-01</leafValues></_>
    <_>
      <internalNodes>
        0 -1 145624 -3.4251504985149950e-05</internalNodes>
      <leafValues>
        1.2984535098075867e-01 -1.2882930040359497e-01</leafValues></_>
    <_>
      <internalNodes>
        0 -1 129535 -3.6674467846751213e-03</internalNodes>
      <leafValues>
        1.6801540553569794e-01 -9.2251658439636230e-02</leafValues></_>
    <_>
      <internalNodes>
        0 -1 119649 2.4170498363673687e-03</internalNodes>
      <leafValues>
        -8.0683678388595581e-02 1.8073663115501404e-01</leafValues></_>
    <_>
      <internalNodes>
        0 -1 110375 -2.1646428853273392e-02</internalNodes>
      <leafValues>
        2.4175545573234558e-01 -7.4185647070407867e-02</leafValues></_></weakClassifiers></stage10>
</opencv_storage>
