<?xml version="1.0"?>
<opencv_storage>
<stage11>
  <maxWeakCount>100</maxWeakCount>
  <stageThreshold>-1.0865830183029175e+00</stageThreshold>
  <weakClassifiers>
    <_>
      <internalNodes>
        0 -1 107350 1.3916124589741230e-02</internalNodes>
      <leafValues>
        -1.9255456328392029e-01 3.8363781571388245e-01</leafValues></_>
    <_>
      <internalNodes>
        0 -1 89785 -2.4035917595028877e-03</internalNodes>
      <leafValues>
        2.9643362760543823e-01 -1.4257618784904480e-01</leafValues></_>
    <_>
      <internalNodes>
        0 -1 161460 -5.8279175311326981e-02</internalNodes>
      <leafValues>
        -1.3974492251873016e-01 2.5460270047187805e-01</leafValues></_>
    <_>
      <internalNodes>
        0 -1 85152 -2.8225414454936981e-02</internalNodes>
      <leafValues>
        4.1761854290962219e-01 -1.0216850787401199e-01</leafValues></_>
    <_>
      <internalNodes>
        0 -1 7561 4.7283925116062164e-02</internalNodes>
      <leafValues>
        -7.7275127172470093e-02 3.0522978305816650e-01</leafValues></_>
    <_>
      <internalNodes>
        0 -1 56006 3.1345728784799576e-03</internalNodes>
      <leafValues>
        -1.1999199539422989e-01 2.0694543421268463e-01</leafValues></_>
    <_>
      <internalNodes>
        0 -1 15540 -1.0887844488024712e-02</internalNodes>
      <leafValues>
        1.9996333122253418e-01 -1.0049447417259216e-01</leafValues></_>
    <_>
      <internalNodes>
        0 -1 104587 3.2338723540306091e-02</internalNodes>
      <leafValues>
        5.7178143411874771e-02 -3.7240129709243774e-01</leafValues></_>
    <_>
      <internalNodes>
        0 -1 127995 5.7914073113352060e-04</internalNodes>
      <leafValues>
        4.7617401927709579e-02 -3.7928014993667603e-01</leafValues></_>
    <_>
      <internalNodes>
        0 -1 14356 -1.4060536399483681e-02</internalNodes>
      <leafValues>
        4.3738853931427002e-01 -4.6251591295003891e-02</leafValues></_>
    <_>
      <internalNodes>
        0 -1 49509 -2.9426027089357376e-02</internalNodes>
      <leafValues>
        -8.6285166442394257e-02 1.9394247233867645e-01</leafValues></_>
    <_>
      <internalNodes>
        0 -1 145340 -2.3982860147953033e-04</internalNodes>
      <leafValues>
        -2.3068869113922119e-01 8.4412135183811188e-02</leafValues></_>
    <_>
      <internalNodes>
        0 -1 144009 -1.3889383990317583e-03</internalNodes>
      <leafValues>
        2.3963476717472076e-01 -7.7998444437980652e-02</leafValues></_>
    <_>
      <internalNodes>
        0 -1 6507 -1.4437532424926758e-01</internalNodes>
      <leafValues>
        -3.9989775419235229e-01 4.3628457933664322e-02</leafValues></_>
    <_>
      <internalNodes>
        0 -1 92911 7.3517873883247375e-02</internalNodes>
      <leafValues>
        5.4890960454940796e-02 -3.2893899083137512e-01</leafValues></_>
    <_>
      <internalNodes>
        0 -1 13369 7.3944954201579094e-03</internalNodes>
      <leafValues>
        -5.4635073989629745e-02 3.1022763252258301e-01</leafValues></_>
    <_>
      <internalNodes>
        0 -1 143966 1.1807831469923258e-03</internalNodes>
      <leafValues>
        6.1078064143657684e-02 -2.7779576182365417e-01</leafValues></_>
    <_>
      <internalNodes>
        0 -1 138709 1.4694094657897949e-02</internalNodes>
      <leafValues>
        -7.6852560043334961e-02 2.5673547387123108e-01</leafValues></_>
    <_>
      <internalNodes>
        0 -1 70236 1.8215815071016550e-03</internalNodes>
      <leafValues>
        -8.4692038595676422e-02 1.9073256850242615e-01</leafValues></_>
    <_>
      <internalNodes>
        0 -1 78656 -2.1264008246362209e-03</internalNodes>
      <leafValues>
        1.5346644818782806e-01 -1.4470472931861877e-01</leafValues></_>
    <_>
      <internalNodes>
        0 -1 46855 -1.4205545186996460e-02</internalNodes>
      <leafValues>
        -7.1358346939086914e-01 2.1468950435519218e-02</leafValues></_>
    <_>
      <internalNodes>
        0 -1 120904 5.0630741752684116e-03</internalNodes>
      <leafValues>
        1.9777230918407440e-02 -6.8244260549545288e-01</leafValues></_>
    <_>
      <internalNodes>
        0 -1 1209 -1.1295602656900883e-02</internalNodes>
      <leafValues>
        2.9375994205474854e-01 -5.3904395550489426e-02</leafValues></_>
    <_>
      <internalNodes>
        0 -1 158538 -3.8947572465986013e-04</internalNodes>
      <leafValues>
        1.8711484968662262e-01 -7.8956425189971924e-02</leafValues></_>
    <_>
      <internalNodes>
        0 -1 158180 -1.0745140723884106e-02</internalNodes>
      <leafValues>
        2.9078793525695801e-01 -5.6751575320959091e-02</leafValues></_>
    <_>
      <internalNodes>
        0 -1 141762 -4.7767750918865204e-02</internalNodes>
      <leafValues>
        -8.0552929639816284e-01 1.6979219391942024e-02</leafValues></_>
    <_>
      <internalNodes>
        0 -1 95817 -8.7681636214256287e-02</internalNodes>
      <leafValues>
        -7.1942758560180664e-01 1.9504867494106293e-02</leafValues></_>
    <_>
      <internalNodes>
        0 -1 25539 1.6186900436878204e-02</internalNodes>
      <leafValues>
        -5.8380261063575745e-02 2.9836711287498474e-01</leafValues></_>
    <_>
      <internalNodes>
        0 -1 21498 1.4720069244503975e-02</internalNodes>
      <leafValues>
        -4.0181849151849747e-02 3.7230423092842102e-01</leafValues></_>
    <_>
      <internalNodes>
        0 -1 126298 1.5147061785683036e-03</internalNodes>
      <leafValues>
        -1.0178662836551666e-01 1.6806094348430634e-01</leafValues></_>
    <_>
      <internalNodes>
        0 -1 75599 1.0814614593982697e-01</internalNodes>
      <leafValues>
        3.6098469048738480e-02 -5.0054806470870972e-01</leafValues></_>
    <_>
      <internalNodes>
        0 -1 13639 -1.4346518553793430e-02</internalNodes>
      <leafValues>
        -4.7562822699546814e-02 3.7476199865341187e-01</leafValues></_>
    <_>
      <internalNodes>
        0 -1 70750 -1.1494776234030724e-02</internalNodes>
      <leafValues>
        -7.2611588239669800e-01 2.7270115911960602e-02</leafValues></_>
    <_>
      <internalNodes>
        0 -1 111617 -2.8223299980163574e-01</internalNodes>
      <leafValues>
        9.6879094839096069e-02 -1.5591649711132050e-01</leafValues></_>
    <_>
      <internalNodes>
        0 -1 156803 -7.1533501613885164e-04</internalNodes>
      <leafValues>
        1.5282359719276428e-01 -1.0712174326181412e-01</leafValues></_>
    <_>
      <internalNodes>
        0 -1 128953 9.9345832131803036e-04</internalNodes>
      <leafValues>
        3.3363956958055496e-02 -5.1952320337295532e-01</leafValues></_>
    <_>
      <internalNodes>
        0 -1 109276 1.0881720110774040e-02</internalNodes>
      <leafValues>
        -7.7084757387638092e-02 2.0504936575889587e-01</leafValues></_>
    <_>
      <internalNodes>
        0 -1 137615 -1.1338330805301666e-01</internalNodes>
      <leafValues>
        -5.3573578596115112e-01 3.0472641810774803e-02</leafValues></_>
    <_>
      <internalNodes>
        0 -1 161053 2.3432591115124524e-04</internalNodes>
      <leafValues>
        9.3773581087589264e-02 -1.7223946750164032e-01</leafValues></_>
    <_>
      <internalNodes>
        0 -1 49843 -1.2862762808799744e-01</internalNodes>
      <leafValues>
        -5.4328179359436035e-01 2.7425335720181465e-02</leafValues></_>
    <_>
      <internalNodes>
        0 -1 2204 -9.5324311405420303e-03</internalNodes>
      <leafValues>
        -1.1838965117931366e-01 1.3768015801906586e-01</leafValues></_>
    <_>
      <internalNodes>
        0 -1 68762 2.9755614697933197e-02</internalNodes>
      <leafValues>
        6.0655605047941208e-02 -2.5919967889785767e-01</leafValues></_>
    <_>
      <internalNodes>
        0 -1 139108 -2.5055047590285540e-03</internalNodes>
      <leafValues>
        1.3624072074890137e-01 -1.1223783344030380e-01</leafValues></_>
    <_>
      <internalNodes>
        0 -1 60257 -2.3051582276821136e-02</internalNodes>
      <leafValues>
        -8.2126659154891968e-01 1.7077159136533737e-02</leafValues></_>
    <_>
      <internalNodes>
        0 -1 155416 -4.6578146517276764e-02</internalNodes>
      <leafValues>
        3.2470023632049561e-01 -5.1692508161067963e-02</leafValues></_>
    <_>
      <internalNodes>
        0 -1 41203 -1.0465851053595543e-02</internalNodes>
      <leafValues>
        -4.7337573766708374e-01 3.9834417402744293e-02</leafValues></_>
    <_>
      <internalNodes>
        0 -1 75537 -1.6930980607867241e-02</internalNodes>
      <leafValues>
        -7.6433122158050537e-01 1.8419038504362106e-02</leafValues></_>
    <_>
      <internalNodes>
        0 -1 159814 3.4705447033047676e-03</internalNodes>
      <leafValues>
        -8.0389417707920074e-02 2.1592490375041962e-01</leafValues></_>
    <_>
      <internalNodes>
        0 -1 115523 4.2119603604078293e-03</internalNodes>
      <leafValues>
        2.0259112119674683e-02 -8.2269102334976196e-01</leafValues></_>
    <_>
      <internalNodes>
        0 -1 110117 1.1355841998010874e-03</internalNodes>
      <leafValues>
        -4.3678704649209976e-02 3.7601542472839355e-01</leafValues></_>
    <_>
      <internalNodes>
        0 -1 159542 -6.5906229428946972e-03</internalNodes>
      <leafValues>
        -7.4942338466644287e-01 2.3165538907051086e-02</leafValues></_>
    <_>
      <internalNodes>
        0 -1 144091 -1.0391680523753166e-02</internalNodes>
      <leafValues>
        -5.2981621026992798e-01 2.3092024028301239e-02</leafValues></_>
    <_>
      <internalNodes>
        0 -1 133644 -9.6858590841293335e-03</internalNodes>
      <leafValues>
        2.5578162074089050e-01 -5.3486529737710953e-02</leafValues></_>
    <_>
      <internalNodes>
        0 -1 121298 -1.0074003366753459e-03</internalNodes>
      <leafValues>
        -5.2877676486968994e-01 2.8275784105062485e-02</leafValues></_>
    <_>
      <internalNodes>
        0 -1 144621 -6.5510822460055351e-03</internalNodes>
      <leafValues>
        1.0474397987127304e-01 -1.2359242141246796e-01</leafValues></_>
    <_>
      <internalNodes>
        0 -1 162186 -2.0980846136808395e-02</internalNodes>
      <leafValues>
        4.2853552103042603e-01 -3.9560176432132721e-02</leafValues></_>
    <_>
      <internalNodes>
        0 -1 77727 3.3146203495562077e-03</internalNodes>
      <leafValues>
        -8.4691144526004791e-02 1.6048596799373627e-01</leafValues></_>
    <_>
      <internalNodes>
        0 -1 144370 4.4129543006420135e-02</internalNodes>
      <leafValues>
        2.2224921733140945e-02 -5.5889183282852173e-01</leafValues></_>
    <_>
      <internalNodes>
        0 -1 90281 1.4380102045834064e-02</internalNodes>
      <leafValues>
        -2.5995474308729172e-02 5.2878433465957642e-01</leafValues></_>
    <_>
      <internalNodes>
        0 -1 29529 7.1879592724144459e-03</internalNodes>
      <leafValues>
        2.4253647774457932e-02 -6.5297168493270874e-01</leafValues></_>
    <_>
      <internalNodes>
        0 -1 86630 -2.6778809726238251e-02</internalNodes>
      <leafValues>
        4.7737550735473633e-01 -3.0283285304903984e-02</leafValues></_>
    <_>
      <internalNodes>
        0 -1 94842 8.7277041748166084e-03</internalNodes>
      <leafValues>
        -6.1790455132722855e-02 1.9936935603618622e-01</leafValues></_>
    <_>
      <internalNodes>
        0 -1 148118 1.6229490574914962e-04</internalNodes>
      <leafValues>
        6.7967481911182404e-02 -1.9146607816219330e-01</leafValues></_>
    <_>
      <internalNodes>
        0 -1 57251 3.9580103475600481e-04</internalNodes>
      <leafValues>
        -9.7484394907951355e-02 1.4262600243091583e-01</leafValues></_>
    <_>
      <internalNodes>
        0 -1 3166 6.9489176385104656e-03</internalNodes>
      <leafValues>
        -4.7422312200069427e-02 3.0519726872444153e-01</leafValues></_>
    <_>
      <internalNodes>
        0 -1 79895 -1.9379264267627150e-04</internalNodes>
      <leafValues>
        -1.6419036686420441e-01 8.0664038658142090e-02</leafValues></_>
    <_>
      <internalNodes>
        0 -1 13074 -4.1866205632686615e-02</internalNodes>
      <leafValues>
        3.3381995558738708e-01 -4.5540671795606613e-02</leafValues></_>
    <_>
      <internalNodes>
        0 -1 78266 -1.2423310545273125e-04</internalNodes>
      <leafValues>
        1.4118088781833649e-01 -1.0774156451225281e-01</leafValues></_>
    <_>
      <internalNodes>
        0 -1 38031 -2.1187206730246544e-02</internalNodes>
      <leafValues>
        -8.7817412614822388e-01 1.6655223444104195e-02</leafValues></_>
    <_>
      <internalNodes>
        0 -1 47616 -1.6588103026151657e-02</internalNodes>
      <leafValues>
        -6.0983413457870483e-01 1.8819501623511314e-02</leafValues></_>
    <_>
      <internalNodes>
        0 -1 73776 1.7653444083407521e-03</internalNodes>
      <leafValues>
        2.1851366385817528e-02 -5.9252607822418213e-01</leafValues></_>
    <_>
      <internalNodes>
        0 -1 156418 7.6230186969041824e-03</internalNodes>
      <leafValues>
        1.5062700025737286e-02 -8.2440137863159180e-01</leafValues></_>
    <_>
      <internalNodes>
        0 -1 155956 1.7114585498347878e-03</internalNodes>
      <leafValues>
        2.4572005495429039e-02 -4.8535543680191040e-01</leafValues></_>
    <_>
      <internalNodes>
        0 -1 50284 1.2330617010593414e-01</internalNodes>
      <leafValues>
        -3.2633278518915176e-02 4.4290342926979065e-01</leafValues></_>
    <_>
      <internalNodes>
        0 -1 162106 2.8652849141508341e-04</internalNodes>
      <leafValues>
        1.1546422541141510e-01 -1.2438578903675079e-01</leafValues></_>
    <_>
      <internalNodes>
        0 -1 124886 -1.0516117513179779e-01</internalNodes>
      <leafValues>
        -6.0627073049545288e-01 2.6408461853861809e-02</leafValues></_>
    <_>
      <internalNodes>
        0 -1 141365 -3.9017582312226295e-03</internalNodes>
      <leafValues>
        2.8269708156585693e-01 -5.9072244912385941e-02</leafValues></_>
    <_>
      <internalNodes>
        0 -1 51298 -4.4018481858074665e-03</internalNodes>
      <leafValues>
        -2.3152817040681839e-02 5.9529381990432739e-01</leafValues></_>
    <_>
      <internalNodes>
        0 -1 135185 1.5171614475548267e-02</internalNodes>
      <leafValues>
        -1.7572933807969093e-02 6.5580612421035767e-01</leafValues></_>
    <_>
      <internalNodes>
        0 -1 75780 -4.9508148804306984e-03</internalNodes>
      <leafValues>
        2.4600350856781006e-01 -5.0597559660673141e-02</leafValues></_>
    <_>
      <internalNodes>
        0 -1 138946 -3.3911355421878397e-04</internalNodes>
      <leafValues>
        1.3432906568050385e-01 -9.8380863666534424e-02</leafValues></_>
    <_>
      <internalNodes>
        0 -1 151434 -3.0780737870372832e-04</internalNodes>
      <leafValues>
        1.3200823962688446e-01 -1.1039328575134277e-01</leafValues></_>
    <_>
      <internalNodes>
        0 -1 67203 -2.8820743318647146e-04</internalNodes>
      <leafValues>
        -2.1064394712448120e-01 6.6438712179660797e-02</leafValues></_>
    <_>
      <internalNodes>
        0 -1 156284 -1.4215861447155476e-03</internalNodes>
      <leafValues>
        -1.9718901813030243e-01 6.9978341460227966e-02</leafValues></_>
    <_>
      <internalNodes>
        0 -1 149233 2.2462557535618544e-03</internalNodes>
      <leafValues>
        -7.8870654106140137e-02 1.7788743972778320e-01</leafValues></_>
    <_>
      <internalNodes>
        0 -1 155244 -1.0472966358065605e-02</internalNodes>
      <leafValues>
        -7.6533168554306030e-02 1.9485069811344147e-01</leafValues></_>
    <_>
      <internalNodes>
        0 -1 152253 -7.2183266282081604e-02</internalNodes>
      <leafValues>
        2.4677652120590210e-01 -6.3496708869934082e-02</leafValues></_>
    <_>
      <internalNodes>
        0 -1 3152 4.7404151409864426e-03</internalNodes>
      <leafValues>
        -4.0951970964670181e-02 3.3062109351158142e-01</leafValues></_>
    <_>
      <internalNodes>
        0 -1 40779 -1.8079091608524323e-01</internalNodes>
      <leafValues>
        -3.1783461570739746e-01 4.9253959208726883e-02</leafValues></_>
    <_>
      <internalNodes>
        0 -1 7468 -3.7199708167463541e-03</internalNodes>
      <leafValues>
        2.1079406142234802e-02 -6.3913780450820923e-01</leafValues></_>
    <_>
      <internalNodes>
        0 -1 18017 -2.3849641729611903e-04</internalNodes>
      <leafValues>
        -2.1094723045825958e-01 6.8424440920352936e-02</leafValues></_>
    <_>
      <internalNodes>
        0 -1 82685 -6.6018830984830856e-03</internalNodes>
      <leafValues>
        1.3093845546245575e-01 -1.0772235691547394e-01</leafValues></_>
    <_>
      <internalNodes>
        0 -1 29339 -1.0300202667713165e-01</internalNodes>
      <leafValues>
        -3.0235370993614197e-01 4.9735795706510544e-02</leafValues></_>
    <_>
      <internalNodes>
        0 -1 77226 -6.3373548910021782e-03</internalNodes>
      <leafValues>
        3.5697209835052490e-01 -4.4524673372507095e-02</leafValues></_>
    <_>
      <internalNodes>
        0 -1 9563 -6.6132759675383568e-03</internalNodes>
      <leafValues>
        -7.5681567192077637e-01 1.8016600981354713e-02</leafValues></_>
    <_>
      <internalNodes>
        0 -1 88683 1.0896358639001846e-02</internalNodes>
      <leafValues>
        -2.2579818964004517e-02 6.6176801919937134e-01</leafValues></_>
    <_>
      <internalNodes>
        0 -1 58759 -6.0078930109739304e-02</internalNodes>
      <leafValues>
        -6.1842620372772217e-01 2.6051584631204605e-02</leafValues></_>
    <_>
      <internalNodes>
        0 -1 37965 -2.0015104673802853e-03</internalNodes>
      <leafValues>
        -2.7146257460117340e-02 5.8530753850936890e-01</leafValues></_>
    <_>
      <internalNodes>
        0 -1 111068 -6.5551698207855225e-03</internalNodes>
      <leafValues>
        5.5532660335302353e-02 -2.8326433897018433e-01</leafValues></_>
    <_>
      <internalNodes>
        0 -1 26398 -2.7384907007217407e-01</internalNodes>
      <leafValues>
        -8.9268225431442261e-01 1.1380669660866261e-02</leafValues></_></weakClassifiers></stage11>
</opencv_storage>
