<?xml version="1.0"?>
<opencv_storage>
<stage18>
  <maxWeakCount>100</maxWeakCount>
  <stageThreshold>-1.0572711229324341e+00</stageThreshold>
  <weakClassifiers>
    <_>
      <internalNodes>
        0 -1 152817 -1.3663707301020622e-02</internalNodes>
      <leafValues>
        3.6681222915649414e-01 -8.0483958125114441e-02</leafValues></_>
    <_>
      <internalNodes>
        0 -1 9446 2.6826367247849703e-03</internalNodes>
      <leafValues>
        -8.0599620938301086e-02 3.6940455436706543e-01</leafValues></_>
    <_>
      <internalNodes>
        0 -1 87496 3.9955694228410721e-03</internalNodes>
      <leafValues>
        -1.4043071866035461e-01 1.6806739568710327e-01</leafValues></_>
    <_>
      <internalNodes>
        0 -1 65237 -4.1499111056327820e-01</internalNodes>
      <leafValues>
        -6.2920713424682617e-01 2.8419887647032738e-02</leafValues></_>
    <_>
      <internalNodes>
        0 -1 114394 -4.2244400829076767e-03</internalNodes>
      <leafValues>
        1.9525364041328430e-01 -9.4927795231342316e-02</leafValues></_>
    <_>
      <internalNodes>
        0 -1 249 8.8112400844693184e-03</internalNodes>
      <leafValues>
        -7.5539357960224152e-02 2.1934145689010620e-01</leafValues></_>
    <_>
      <internalNodes>
        0 -1 159077 2.9719201847910881e-02</internalNodes>
      <leafValues>
        -4.2946428060531616e-02 4.0522116422653198e-01</leafValues></_>
    <_>
      <internalNodes>
        0 -1 60428 1.8467641202732921e-03</internalNodes>
      <leafValues>
        -9.8292335867881775e-02 1.5814423561096191e-01</leafValues></_>
    <_>
      <internalNodes>
        0 -1 10035 7.0646908134222031e-03</internalNodes>
      <leafValues>
        -4.4265851378440857e-02 4.0193372964859009e-01</leafValues></_>
    <_>
      <internalNodes>
        0 -1 132962 2.9193100053817034e-03</internalNodes>
      <leafValues>
        4.6377826482057571e-02 -3.4162160754203796e-01</leafValues></_>
    <_>
      <internalNodes>
        0 -1 161195 -2.8506880626082420e-03</internalNodes>
      <leafValues>
        2.8372687101364136e-01 -4.4917888939380646e-02</leafValues></_>
    <_>
      <internalNodes>
        0 -1 91898 -8.4157986566424370e-04</internalNodes>
      <leafValues>
        -2.3529677093029022e-01 5.8127786964178085e-02</leafValues></_>
    <_>
      <internalNodes>
        0 -1 126858 1.8979648593813181e-03</internalNodes>
      <leafValues>
        8.6122617125511169e-02 -1.5976078808307648e-01</leafValues></_>
    <_>
      <internalNodes>
        0 -1 10741 -1.5830691903829575e-02</internalNodes>
      <leafValues>
        -3.1785860657691956e-01 3.3956211060285568e-02</leafValues></_>
    <_>
      <internalNodes>
        0 -1 87890 -3.8407891988754272e-03</internalNodes>
      <leafValues>
        1.8001534044742584e-01 -7.1817219257354736e-02</leafValues></_>
    <_>
      <internalNodes>
        0 -1 86720 -1.8186229467391968e-01</internalNodes>
      <leafValues>
        -7.0543581247329712e-01 2.6829352602362633e-02</leafValues></_>
    <_>
      <internalNodes>
        0 -1 155458 -1.1283354833722115e-02</internalNodes>
      <leafValues>
        -7.1605771780014038e-01 1.8233595415949821e-02</leafValues></_>
    <_>
      <internalNodes>
        0 -1 35836 1.2167041131760925e-04</internalNodes>
      <leafValues>
        7.6487608253955841e-02 -1.6305829584598541e-01</leafValues></_>
    <_>
      <internalNodes>
        0 -1 139044 -1.5540412277914584e-04</internalNodes>
      <leafValues>
        1.1796317994594574e-01 -1.1097054928541183e-01</leafValues></_>
    <_>
      <internalNodes>
        0 -1 130313 -6.1687044799327850e-03</internalNodes>
      <leafValues>
        1.4761963486671448e-01 -9.0572826564311981e-02</leafValues></_>
    <_>
      <internalNodes>
        0 -1 136237 9.7399875521659851e-03</internalNodes>
      <leafValues>
        -5.4446563124656677e-02 2.5315764546394348e-01</leafValues></_>
    <_>
      <internalNodes>
        0 -1 104950 2.8555378317832947e-02</internalNodes>
      <leafValues>
        4.7984689474105835e-02 -3.2966861128807068e-01</leafValues></_>
    <_>
      <internalNodes>
        0 -1 45246 -8.9293777942657471e-02</internalNodes>
      <leafValues>
        1.5345485880970955e-02 -7.0949798822402954e-01</leafValues></_>
    <_>
      <internalNodes>
        0 -1 73149 1.6308472258970141e-03</internalNodes>
      <leafValues>
        -1.1176213622093201e-01 1.2627299129962921e-01</leafValues></_>
    <_>
      <internalNodes>
        0 -1 77808 -2.4390016915276647e-04</internalNodes>
      <leafValues>
        1.4615279436111450e-01 -9.1403916478157043e-02</leafValues></_>
    <_>
      <internalNodes>
        0 -1 4284 1.3454239815473557e-02</internalNodes>
      <leafValues>
        3.7390481680631638e-02 -4.0469682216644287e-01</leafValues></_>
    <_>
      <internalNodes>
        0 -1 143930 -1.6417022794485092e-02</internalNodes>
      <leafValues>
        7.3218500614166260e-01 -2.0386759191751480e-02</leafValues></_>
    <_>
      <internalNodes>
        0 -1 32044 1.7753668129444122e-02</internalNodes>
      <leafValues>
        -5.0366472452878952e-02 2.4675337970256805e-01</leafValues></_>
    <_>
      <internalNodes>
        0 -1 8 -7.4305990710854530e-03</internalNodes>
      <leafValues>
        -9.5791883766651154e-02 1.4631320536136627e-01</leafValues></_>
    <_>
      <internalNodes>
        0 -1 151736 -3.1507285311818123e-03</internalNodes>
      <leafValues>
        -6.5212541818618774e-01 2.0642684772610664e-02</leafValues></_>
    <_>
      <internalNodes>
        0 -1 1198 -1.3559382408857346e-02</internalNodes>
      <leafValues>
        4.2473161220550537e-01 -3.1097758561372757e-02</leafValues></_>
    <_>
      <internalNodes>
        0 -1 113563 4.0184316458180547e-04</internalNodes>
      <leafValues>
        8.0258786678314209e-02 -1.6456252336502075e-01</leafValues></_>
    <_>
      <internalNodes>
        0 -1 111726 -2.0727584138512611e-02</internalNodes>
      <leafValues>
        4.6644070744514465e-01 -2.5417933240532875e-02</leafValues></_>
    <_>
      <internalNodes>
        0 -1 86318 -2.1456878166645765e-03</internalNodes>
      <leafValues>
        2.9770633578300476e-01 -4.6033717691898346e-02</leafValues></_>
    <_>
      <internalNodes>
        0 -1 157339 1.5013330266810954e-04</internalNodes>
      <leafValues>
        7.5049415230751038e-02 -1.6842836141586304e-01</leafValues></_>
    <_>
      <internalNodes>
        0 -1 146958 1.9174840301275253e-02</internalNodes>
      <leafValues>
        -6.2837436795234680e-02 2.0613752305507660e-01</leafValues></_>
    <_>
      <internalNodes>
        0 -1 136749 -3.8542198017239571e-03</internalNodes>
      <leafValues>
        2.2757340967655182e-01 -6.3037626445293427e-02</leafValues></_>
    <_>
      <internalNodes>
        0 -1 123768 -7.1842700242996216e-02</internalNodes>
      <leafValues>
        -3.3720007538795471e-01 4.7556214034557343e-02</leafValues></_>
    <_>
      <internalNodes>
        0 -1 75825 1.6018094029277563e-03</internalNodes>
      <leafValues>
        -6.6206388175487518e-02 2.2099256515502930e-01</leafValues></_>
    <_>
      <internalNodes>
        0 -1 22850 7.6544038951396942e-02</internalNodes>
      <leafValues>
        2.8787525370717049e-02 -4.8129487037658691e-01</leafValues></_>
    <_>
      <internalNodes>
        0 -1 751 1.1528038978576660e-01</internalNodes>
      <leafValues>
        -1.1755904555320740e-01 1.3367791473865509e-01</leafValues></_>
    <_>
      <internalNodes>
        0 -1 148270 3.5784160718321800e-04</internalNodes>
      <leafValues>
        6.4626432955265045e-02 -2.4678072333335876e-01</leafValues></_>
    <_>
      <internalNodes>
        0 -1 101689 -8.7195745436474681e-04</internalNodes>
      <leafValues>
        -4.0118563175201416e-01 3.3939920365810394e-02</leafValues></_>
    <_>
      <internalNodes>
        0 -1 5510 2.5294303894042969e-01</internalNodes>
      <leafValues>
        2.6903500780463219e-02 -4.8564329743385315e-01</leafValues></_>
    <_>
      <internalNodes>
        0 -1 162056 -1.6551400767639279e-03</internalNodes>
      <leafValues>
        -3.0129837989807129e-01 3.9458677172660828e-02</leafValues></_>
    <_>
      <internalNodes>
        0 -1 153674 1.2223694473505020e-02</internalNodes>
      <leafValues>
        -5.4233815521001816e-02 2.5237444043159485e-01</leafValues></_>
    <_>
      <internalNodes>
        0 -1 161834 3.1580269569531083e-04</internalNodes>
      <leafValues>
        6.7827634513378143e-02 -2.2749805450439453e-01</leafValues></_>
    <_>
      <internalNodes>
        0 -1 12621 -1.2734636664390564e-02</internalNodes>
      <leafValues>
        1.7213661968708038e-01 -7.4503861367702484e-02</leafValues></_>
    <_>
      <internalNodes>
        0 -1 3688 -5.2750423550605774e-02</internalNodes>
      <leafValues>
        4.6016201376914978e-01 -2.8538735583424568e-02</leafValues></_>
    <_>
      <internalNodes>
        0 -1 116814 5.5028893053531647e-02</internalNodes>
      <leafValues>
        5.3160104900598526e-02 -2.9157334566116333e-01</leafValues></_>
    <_>
      <internalNodes>
        0 -1 118172 1.2883672490715981e-02</internalNodes>
      <leafValues>
        -7.2467334568500519e-02 2.0247262716293335e-01</leafValues></_>
    <_>
      <internalNodes>
        0 -1 58225 -9.3771787360310555e-03</internalNodes>
      <leafValues>
        -4.9744528532028198e-01 2.9277976602315903e-02</leafValues></_>
    <_>
      <internalNodes>
        0 -1 158045 -2.6755902916193008e-02</internalNodes>
      <leafValues>
        3.1591111421585083e-01 -4.1317440569400787e-02</leafValues></_>
    <_>
      <internalNodes>
        0 -1 153134 -7.6477340189740062e-04</internalNodes>
      <leafValues>
        -3.9713317155838013e-01 3.8143742829561234e-02</leafValues></_>
    <_>
      <internalNodes>
        0 -1 150755 -1.6785170882940292e-02</internalNodes>
      <leafValues>
        -4.3237504363059998e-01 3.0935641378164291e-02</leafValues></_>
    <_>
      <internalNodes>
        0 -1 12333 3.5585433244705200e-02</internalNodes>
      <leafValues>
        -2.7831589803099632e-02 4.3815505504608154e-01</leafValues></_>
    <_>
      <internalNodes>
        0 -1 40370 1.4950728509575129e-03</internalNodes>
      <leafValues>
        -1.1109015345573425e-01 1.1127684265375137e-01</leafValues></_>
    <_>
      <internalNodes>
        0 -1 47853 8.5641344776377082e-04</internalNodes>
      <leafValues>
        6.8033784627914429e-02 -1.8171565234661102e-01</leafValues></_>
    <_>
      <internalNodes>
        0 -1 44108 6.1454355716705322e-02</internalNodes>
      <leafValues>
        6.0495156794786453e-02 -2.2341790795326233e-01</leafValues></_>
    <_>
      <internalNodes>
        0 -1 33041 -6.0714650899171829e-02</internalNodes>
      <leafValues>
        -2.5786572694778442e-01 5.5697824805974960e-02</leafValues></_>
    <_>
      <internalNodes>
        0 -1 118003 -1.3403091579675674e-02</internalNodes>
      <leafValues>
        1.9694553315639496e-01 -6.4904555678367615e-02</leafValues></_>
    <_>
      <internalNodes>
        0 -1 142547 -4.9002165906131268e-03</internalNodes>
      <leafValues>
        1.4985050261020660e-01 -8.5799410939216614e-02</leafValues></_>
    <_>
      <internalNodes>
        0 -1 161941 -5.9562938986346126e-04</internalNodes>
      <leafValues>
        -2.5001692771911621e-01 6.2037765979766846e-02</leafValues></_>
    <_>
      <internalNodes>
        0 -1 157575 2.7116700075566769e-03</internalNodes>
      <leafValues>
        -3.0098041519522667e-02 4.0710747241973877e-01</leafValues></_>
    <_>
      <internalNodes>
        0 -1 58124 5.0774635747075081e-04</internalNodes>
      <leafValues>
        4.4619072228670120e-02 -2.6133346557617188e-01</leafValues></_>
    <_>
      <internalNodes>
        0 -1 48617 4.8330631107091904e-03</internalNodes>
      <leafValues>
        -4.9404993653297424e-02 2.5278037786483765e-01</leafValues></_>
    <_>
      <internalNodes>
        0 -1 96089 -2.3247705772519112e-02</internalNodes>
      <leafValues>
        -3.2772850990295410e-01 3.8714062422513962e-02</leafValues></_>
    <_>
      <internalNodes>
        0 -1 88976 -4.2404349893331528e-02</internalNodes>
      <leafValues>
        -8.8933330774307251e-01 8.7635694071650505e-03</leafValues></_>
    <_>
      <internalNodes>
        0 -1 69941 -6.0154590755701065e-03</internalNodes>
      <leafValues>
        3.5746124386787415e-01 -4.0351398289203644e-02</leafValues></_>
    <_>
      <internalNodes>
        0 -1 132089 -5.9526525437831879e-03</internalNodes>
      <leafValues>
        -6.7751163244247437e-01 2.2236958146095276e-02</leafValues></_>
    <_>
      <internalNodes>
        0 -1 143499 1.6392167890444398e-04</internalNodes>
      <leafValues>
        6.6988423466682434e-02 -1.6421468555927277e-01</leafValues></_>
    <_>
      <internalNodes>
        0 -1 102821 -1.8863212317228317e-03</internalNodes>
      <leafValues>
        1.4954142272472382e-01 -7.8787460923194885e-02</leafValues></_>
    <_>
      <internalNodes>
        0 -1 117862 7.4221141403540969e-05</internalNodes>
      <leafValues>
        -1.0187927633523941e-01 1.3789215683937073e-01</leafValues></_>
    <_>
      <internalNodes>
        0 -1 104339 4.5637302100658417e-03</internalNodes>
      <leafValues>
        -7.3434039950370789e-02 1.6546878218650818e-01</leafValues></_>
    <_>
      <internalNodes>
        0 -1 114411 -5.8278664946556091e-03</internalNodes>
      <leafValues>
        1.7541529238224030e-01 -6.8437948822975159e-02</leafValues></_>
    <_>
      <internalNodes>
        0 -1 157584 -1.4974798250477761e-04</internalNodes>
      <leafValues>
        -1.7259426414966583e-01 8.5296422243118286e-02</leafValues></_>
    <_>
      <internalNodes>
        0 -1 159407 -8.1264767795801163e-03</internalNodes>
      <leafValues>
        2.5691989064216614e-01 -4.9283154308795929e-02</leafValues></_>
    <_>
      <internalNodes>
        0 -1 108010 -2.5453211856074631e-04</internalNodes>
      <leafValues>
        -1.8528324365615845e-01 6.9629251956939697e-02</leafValues></_>
    <_>
      <internalNodes>
        0 -1 764 -7.5560748577117920e-02</internalNodes>
      <leafValues>
        2.2255972027778625e-01 -5.2951365709304810e-02</leafValues></_>
    <_>
      <internalNodes>
        0 -1 103912 -2.1014387905597687e-01</internalNodes>
      <leafValues>
        -5.6708037853240967e-01 2.4959176778793335e-02</leafValues></_>
    <_>
      <internalNodes>
        0 -1 59956 -2.0148069597780704e-04</internalNodes>
      <leafValues>
        -1.8299475312232971e-01 6.9720476865768433e-02</leafValues></_>
    <_>
      <internalNodes>
        0 -1 7652 -3.8832925260066986e-02</internalNodes>
      <leafValues>
        1.9276176393032074e-01 -6.1434790492057800e-02</leafValues></_>
    <_>
      <internalNodes>
        0 -1 134392 -3.3703763037919998e-02</internalNodes>
      <leafValues>
        3.3454909920692444e-01 -3.4623190760612488e-02</leafValues></_>
    <_>
      <internalNodes>
        0 -1 116553 -1.6704937443137169e-03</internalNodes>
      <leafValues>
        1.8513415008783340e-02 -7.6578831672668457e-01</leafValues></_>
    <_>
      <internalNodes>
        0 -1 3286 -3.6471273750066757e-02</internalNodes>
      <leafValues>
        -6.0417473316192627e-01 1.4759742654860020e-02</leafValues></_>
    <_>
      <internalNodes>
        0 -1 11137 -1.2597229797393084e-03</internalNodes>
      <leafValues>
        1.1128780990839005e-01 -1.0496235638856888e-01</leafValues></_>
    <_>
      <internalNodes>
        0 -1 30479 3.3231057226657867e-02</internalNodes>
      <leafValues>
        -2.0048771053552628e-02 6.2454968690872192e-01</leafValues></_>
    <_>
      <internalNodes>
        0 -1 29422 1.4638301730155945e-01</internalNodes>
      <leafValues>
        5.8272197842597961e-02 -2.0487371087074280e-01</leafValues></_>
    <_>
      <internalNodes>
        0 -1 158622 -5.8422042056918144e-03</internalNodes>
      <leafValues>
        1.1514730751514435e-01 -1.0603012144565582e-01</leafValues></_>
    <_>
      <internalNodes>
        0 -1 106815 6.4449217170476913e-03</internalNodes>
      <leafValues>
        1.4966457150876522e-02 -7.9957550764083862e-01</leafValues></_>
    <_>
      <internalNodes>
        0 -1 120563 8.1549159949645400e-04</internalNodes>
      <leafValues>
        2.9259519651532173e-02 -3.4624293446540833e-01</leafValues></_>
    <_>
      <internalNodes>
        0 -1 143044 -3.7306065205484629e-03</internalNodes>
      <leafValues>
        -3.4287139773368835e-01 3.3764984458684921e-02</leafValues></_>
    <_>
      <internalNodes>
        0 -1 105937 -5.1702959463000298e-03</internalNodes>
      <leafValues>
        6.2070095539093018e-01 -1.9347947090864182e-02</leafValues></_>
    <_>
      <internalNodes>
        0 -1 145781 3.7475153803825378e-02</internalNodes>
      <leafValues>
        -2.9534187167882919e-02 3.6607658863067627e-01</leafValues></_>
    <_>
      <internalNodes>
        0 -1 145034 1.4902869588695467e-04</internalNodes>
      <leafValues>
        6.8069070577621460e-02 -1.6979984939098358e-01</leafValues></_>
    <_>
      <internalNodes>
        0 -1 103603 1.0525439574848861e-04</internalNodes>
      <leafValues>
        -9.8208725452423096e-02 1.2631742656230927e-01</leafValues></_>
    <_>
      <internalNodes>
        0 -1 6076 1.4539131661877036e-03</internalNodes>
      <leafValues>
        -6.7734263837337494e-02 1.7754945158958435e-01</leafValues></_>
    <_>
      <internalNodes>
        0 -1 161283 8.1265876069664955e-03</internalNodes>
      <leafValues>
        -2.3569460958242416e-02 4.3904137611389160e-01</leafValues></_>
    <_>
      <internalNodes>
        0 -1 67733 -1.3234503567218781e-03</internalNodes>
      <leafValues>
        1.4638966321945190e-01 -7.6978348195552826e-02</leafValues></_>
    <_>
      <internalNodes>
        0 -1 78222 -1.9967176485806704e-03</internalNodes>
      <leafValues>
        -7.6013267040252686e-01 1.6592755913734436e-02</leafValues></_></weakClassifiers></stage18>
</opencv_storage>
