<?xml version="1.0"?>
<opencv_storage>
<stage0>
  <maxWeakCount>17</maxWeakCount>
  <stageThreshold>-1.7960721254348755e+00</stageThreshold>
  <weakClassifiers>
    <_>
      <internalNodes>
        0 -1 70254 -3.2565236091613770e-01</internalNodes>
      <leafValues>
        -7.7157801389694214e-01 6.3952094316482544e-01</leafValues></_>
    <_>
      <internalNodes>
        0 -1 1319 4.8435539007186890e-02</internalNodes>
      <leafValues>
        -2.7779850363731384e-01 7.0914500951766968e-01</leafValues></_>
    <_>
      <internalNodes>
        0 -1 106759 -8.2889199256896973e-02</internalNodes>
      <leafValues>
        -7.2507762908935547e-01 2.3464882373809814e-01</leafValues></_>
    <_>
      <internalNodes>
        0 -1 61186 2.2265367209911346e-02</internalNodes>
      <leafValues>
        -3.0180248618125916e-01 6.0896712541580200e-01</leafValues></_>
    <_>
      <internalNodes>
        0 -1 70695 -4.8980619758367538e-03</internalNodes>
      <leafValues>
        5.9454458951950073e-01 -2.4501909315586090e-01</leafValues></_>
    <_>
      <internalNodes>
        0 -1 38492 -2.4988421797752380e-01</internalNodes>
      <leafValues>
        -1.2170585989952087e-01 5.8555853366851807e-01</leafValues></_>
    <_>
      <internalNodes>
        0 -1 115 -1.9175887107849121e-02</internalNodes>
      <leafValues>
        8.2170826196670532e-01 -1.1263653635978699e-01</leafValues></_>
    <_>
      <internalNodes>
        0 -1 74987 -1.6155563294887543e-02</internalNodes>
      <leafValues>
        6.0098761320114136e-01 -1.5402980148792267e-01</leafValues></_>
    <_>
      <internalNodes>
        0 -1 88470 -1.9912313669919968e-02</internalNodes>
      <leafValues>
        3.2803866267204285e-01 -2.1772721409797668e-01</leafValues></_>
    <_>
      <internalNodes>
        0 -1 12 -1.5254036523401737e-02</internalNodes>
      <leafValues>
        -1.4561532437801361e-01 4.7664430737495422e-01</leafValues></_>
    <_>
      <internalNodes>
        0 -1 139614 -7.7828345820307732e-03</internalNodes>
      <leafValues>
        4.6097892522811890e-01 -1.7364020645618439e-01</leafValues></_>
    <_>
      <internalNodes>
        0 -1 158616 -7.8886598348617554e-03</internalNodes>
      <leafValues>
        4.8236522078514099e-01 -1.6750413179397583e-01</leafValues></_>
    <_>
      <internalNodes>
        0 -1 10075 -1.4715648256242275e-02</internalNodes>
      <leafValues>
        6.2861156463623047e-01 -1.0633812099695206e-01</leafValues></_>
    <_>
      <internalNodes>
        0 -1 2243 -2.1508801728487015e-02</internalNodes>
      <leafValues>
        6.8616992235183716e-01 -8.7354153394699097e-02</leafValues></_>
    <_>
      <internalNodes>
        0 -1 12740 4.8405207693576813e-02</internalNodes>
      <leafValues>
        -8.9871190488338470e-02 6.6634178161621094e-01</leafValues></_>
    <_>
      <internalNodes>
        0 -1 12536 -1.0234206914901733e-02</internalNodes>
      <leafValues>
        -1.1895579099655151e-01 4.5551261305809021e-01</leafValues></_>
    <_>
      <internalNodes>
        0 -1 110105 3.8723573088645935e-02</internalNodes>
      <leafValues>
        -1.1952957510948181e-01 5.1257604360580444e-01</leafValues></_></weakClassifiers></stage0>
</opencv_storage>
