<?xml version="1.0"?>
<opencv_storage>
<stage6>
  <maxWeakCount>64</maxWeakCount>
  <stageThreshold>-1.1525404453277588e+00</stageThreshold>
  <weakClassifiers>
    <_>
      <internalNodes>
        0 -1 122464 -7.6141960918903351e-02</internalNodes>
      <leafValues>
        3.6015084385871887e-01 -3.1810766458511353e-01</leafValues></_>
    <_>
      <internalNodes>
        0 -1 38828 9.5734409987926483e-03</internalNodes>
      <leafValues>
        -1.6947583854198456e-01 4.5912122726440430e-01</leafValues></_>
    <_>
      <internalNodes>
        0 -1 5926 1.1097451671957970e-02</internalNodes>
      <leafValues>
        -1.4781253039836884e-01 3.6809059977531433e-01</leafValues></_>
    <_>
      <internalNodes>
        0 -1 66596 2.3119006305932999e-02</internalNodes>
      <leafValues>
        -2.1391141414642334e-01 2.6008835434913635e-01</leafValues></_>
    <_>
      <internalNodes>
        0 -1 139789 -2.1868513897061348e-02</internalNodes>
      <leafValues>
        -1.4379809796810150e-01 2.5303557515144348e-01</leafValues></_>
    <_>
      <internalNodes>
        0 -1 114377 -6.9090572651475668e-04</internalNodes>
      <leafValues>
        2.1688911318778992e-01 -1.7674195766448975e-01</leafValues></_>
    <_>
      <internalNodes>
        0 -1 93591 1.0930740833282471e-01</internalNodes>
      <leafValues>
        1.0811245441436768e-01 -4.7192510962486267e-01</leafValues></_>
    <_>
      <internalNodes>
        0 -1 2270 -1.7336614429950714e-02</internalNodes>
      <leafValues>
        3.0826696753501892e-01 -1.2279264628887177e-01</leafValues></_>
    <_>
      <internalNodes>
        0 -1 61 -4.5921400189399719e-02</internalNodes>
      <leafValues>
        -7.2340101003646851e-02 3.5108718276023865e-01</leafValues></_>
    <_>
      <internalNodes>
        0 -1 158349 -2.0167484879493713e-02</internalNodes>
      <leafValues>
        3.8752353191375732e-01 -9.5938786864280701e-02</leafValues></_>
    <_>
      <internalNodes>
        0 -1 89243 -1.6088697593659163e-03</internalNodes>
      <leafValues>
        4.1118975728750229e-02 -5.5534434318542480e-01</leafValues></_>
    <_>
      <internalNodes>
        0 -1 157732 1.5319719910621643e-02</internalNodes>
      <leafValues>
        -7.9971902072429657e-02 3.1857612729072571e-01</leafValues></_>
    <_>
      <internalNodes>
        0 -1 143336 -6.4620226621627808e-03</internalNodes>
      <leafValues>
        1.5972706675529480e-01 -1.9917175173759460e-01</leafValues></_>
    <_>
      <internalNodes>
        0 -1 153282 -4.1273023933172226e-02</internalNodes>
      <leafValues>
        -3.6324498057365417e-01 7.3649957776069641e-02</leafValues></_>
    <_>
      <internalNodes>
        0 -1 55501 -2.8329100459814072e-03</internalNodes>
      <leafValues>
        2.2505068778991699e-01 -1.0786563158035278e-01</leafValues></_>
    <_>
      <internalNodes>
        0 -1 124845 6.2761586159467697e-03</internalNodes>
      <leafValues>
        -9.5082946121692657e-02 2.7961802482604980e-01</leafValues></_>
    <_>
      <internalNodes>
        0 -1 154936 -4.8588598147034645e-03</internalNodes>
      <leafValues>
        -4.6941229701042175e-01 5.4068993777036667e-02</leafValues></_>
    <_>
      <internalNodes>
        0 -1 160979 1.9791991508100182e-04</internalNodes>
      <leafValues>
        9.9248602986335754e-02 -2.4429354071617126e-01</leafValues></_>
    <_>
      <internalNodes>
        0 -1 11606 -3.3762186649255455e-04</internalNodes>
      <leafValues>
        1.3485161960124969e-01 -1.6616347432136536e-01</leafValues></_>
    <_>
      <internalNodes>
        0 -1 25637 -1.8377456814050674e-02</internalNodes>
      <leafValues>
        4.6042379736900330e-01 -4.4477671384811401e-02</leafValues></_>
    <_>
      <internalNodes>
        0 -1 152055 -1.7410617321729660e-02</internalNodes>
      <leafValues>
        4.5932573080062866e-01 -4.7127623111009598e-02</leafValues></_>
    <_>
      <internalNodes>
        0 -1 26096 1.9184641540050507e-02</internalNodes>
      <leafValues>
        -1.3055236637592316e-01 1.6173949837684631e-01</leafValues></_>
    <_>
      <internalNodes>
        0 -1 21681 1.6579490154981613e-02</internalNodes>
      <leafValues>
        -8.3775348961353302e-02 2.9375919699668884e-01</leafValues></_>
    <_>
      <internalNodes>
        0 -1 16045 -1.1972479522228241e-01</internalNodes>
      <leafValues>
        3.9384579658508301e-01 -5.5039577186107635e-02</leafValues></_>
    <_>
      <internalNodes>
        0 -1 72900 2.4646700918674469e-01</internalNodes>
      <leafValues>
        -6.9252699613571167e-02 3.6568871140480042e-01</leafValues></_>
    <_>
      <internalNodes>
        0 -1 135712 -4.9474298954010010e-02</internalNodes>
      <leafValues>
        2.0449614524841309e-01 -1.0761146247386932e-01</leafValues></_>
    <_>
      <internalNodes>
        0 -1 118211 -2.0552739500999451e-02</internalNodes>
      <leafValues>
        3.8868033885955811e-01 -6.3347823917865753e-02</leafValues></_>
    <_>
      <internalNodes>
        0 -1 11881 -1.0937640909105539e-03</internalNodes>
      <leafValues>
        -4.4457590579986572e-01 5.2982103079557419e-02</leafValues></_>
    <_>
      <internalNodes>
        0 -1 115518 -1.1926832376047969e-03</internalNodes>
      <leafValues>
        -6.2959432601928711e-01 3.4311834722757339e-02</leafValues></_>
    <_>
      <internalNodes>
        0 -1 141218 1.5402661636471748e-02</internalNodes>
      <leafValues>
        -8.2401141524314880e-02 2.6811993122100830e-01</leafValues></_>
    <_>
      <internalNodes>
        0 -1 151527 6.4634364098310471e-03</internalNodes>
      <leafValues>
        -7.0678308606147766e-02 2.9337462782859802e-01</leafValues></_>
    <_>
      <internalNodes>
        0 -1 37340 -2.9629408381879330e-03</internalNodes>
      <leafValues>
        1.6720698773860931e-01 -1.2358042597770691e-01</leafValues></_>
    <_>
      <internalNodes>
        0 -1 25186 -1.2454297393560410e-01</internalNodes>
      <leafValues>
        3.8706198334693909e-01 -6.2179524451494217e-02</leafValues></_>
    <_>
      <internalNodes>
        0 -1 93548 -4.0324461460113525e-01</internalNodes>
      <leafValues>
        -7.8747016191482544e-01 3.2825443893671036e-02</leafValues></_>
    <_>
      <internalNodes>
        0 -1 141811 -2.2611744701862335e-02</internalNodes>
      <leafValues>
        2.7905559539794922e-01 -7.7602721750736237e-02</leafValues></_>
    <_>
      <internalNodes>
        0 -1 152697 7.5768874958157539e-03</internalNodes>
      <leafValues>
        3.7883020937442780e-02 -7.0802736282348633e-01</leafValues></_>
    <_>
      <internalNodes>
        0 -1 121298 2.6646396145224571e-04</internalNodes>
      <leafValues>
        7.5707651674747467e-02 -2.5259673595428467e-01</leafValues></_>
    <_>
      <internalNodes>
        0 -1 10036 4.7074509784579277e-03</internalNodes>
      <leafValues>
        -6.0144796967506409e-02 3.5236555337905884e-01</leafValues></_>
    <_>
      <internalNodes>
        0 -1 1105 6.1243050731718540e-04</internalNodes>
      <leafValues>
        6.7898459732532501e-02 -3.0087924003601074e-01</leafValues></_>
    <_>
      <internalNodes>
        0 -1 144438 -1.6062397509813309e-02</internalNodes>
      <leafValues>
        -8.7026995420455933e-01 1.9730297848582268e-02</leafValues></_>
    <_>
      <internalNodes>
        0 -1 135904 -1.0364538989961147e-02</internalNodes>
      <leafValues>
        2.3702037334442139e-01 -8.6750485002994537e-02</leafValues></_>
    <_>
      <internalNodes>
        0 -1 101470 -6.4441282302141190e-03</internalNodes>
      <leafValues>
        2.4923735857009888e-01 -9.5101661980152130e-02</leafValues></_>
    <_>
      <internalNodes>
        0 -1 11915 6.5774531103670597e-03</internalNodes>
      <leafValues>
        -3.4258350729942322e-02 5.5019533634185791e-01</leafValues></_>
    <_>
      <internalNodes>
        0 -1 72556 3.8328813388943672e-03</internalNodes>
      <leafValues>
        -1.3625833392143250e-01 1.5079709887504578e-01</leafValues></_>
    <_>
      <internalNodes>
        0 -1 114983 1.8128511309623718e-01</internalNodes>
      <leafValues>
        -9.0675473213195801e-02 2.3903414607048035e-01</leafValues></_>
    <_>
      <internalNodes>
        0 -1 68898 -3.1810710206627846e-03</internalNodes>
      <leafValues>
        1.9811299443244934e-01 -9.9996216595172882e-02</leafValues></_>
    <_>
      <internalNodes>
        0 -1 5003 -8.6601497605443001e-03</internalNodes>
      <leafValues>
        7.4222099781036377e-01 -3.0680330470204353e-02</leafValues></_>
    <_>
      <internalNodes>
        0 -1 98398 -2.5689619360491633e-04</internalNodes>
      <leafValues>
        -2.4954330921173096e-01 8.2723155617713928e-02</leafValues></_>
    <_>
      <internalNodes>
        0 -1 69435 4.0400873869657516e-02</internalNodes>
      <leafValues>
        4.9292504787445068e-02 -4.2132845520973206e-01</leafValues></_>
    <_>
      <internalNodes>
        0 -1 21395 -5.2682779729366302e-02</internalNodes>
      <leafValues>
        -3.1104856729507446e-01 6.7561656236648560e-02</leafValues></_>
    <_>
      <internalNodes>
        0 -1 80242 -1.5887569636106491e-02</internalNodes>
      <leafValues>
        2.6157647371292114e-01 -8.3424717187881470e-02</leafValues></_>
    <_>
      <internalNodes>
        0 -1 153625 2.3704063147306442e-02</internalNodes>
      <leafValues>
        4.4413413852453232e-02 -4.9328401684761047e-01</leafValues></_>
    <_>
      <internalNodes>
        0 -1 19373 -1.6268907487392426e-01</internalNodes>
      <leafValues>
        -4.2200368642807007e-01 5.0876613706350327e-02</leafValues></_>
    <_>
      <internalNodes>
        0 -1 70090 1.3466775417327881e-03</internalNodes>
      <leafValues>
        -1.4539107680320740e-01 1.5588100254535675e-01</leafValues></_>
    <_>
      <internalNodes>
        0 -1 97045 -3.9249085821211338e-03</internalNodes>
      <leafValues>
        1.3881228864192963e-01 -1.6176401078701019e-01</leafValues></_>
    <_>
      <internalNodes>
        0 -1 153273 -1.2371440418064594e-02</internalNodes>
      <leafValues>
        2.7456378936767578e-01 -7.8853793442249298e-02</leafValues></_>
    <_>
      <internalNodes>
        0 -1 155702 -5.7362671941518784e-03</internalNodes>
      <leafValues>
        2.2349219024181366e-01 -9.1663934290409088e-02</leafValues></_>
    <_>
      <internalNodes>
        0 -1 162098 3.5551033215597272e-04</internalNodes>
      <leafValues>
        9.2728525400161743e-02 -2.2186255455017090e-01</leafValues></_>
    <_>
      <internalNodes>
        0 -1 126015 -7.6025336980819702e-02</internalNodes>
      <leafValues>
        -4.9003407359123230e-01 4.3539568781852722e-02</leafValues></_>
    <_>
      <internalNodes>
        0 -1 82371 1.1970800347626209e-02</internalNodes>
      <leafValues>
        -7.5747109949588776e-02 2.7533045411109924e-01</leafValues></_>
    <_>
      <internalNodes>
        0 -1 59960 3.5936868516728282e-04</internalNodes>
      <leafValues>
        8.0650210380554199e-02 -2.8379574418067932e-01</leafValues></_>
    <_>
      <internalNodes>
        0 -1 25489 -9.9036991596221924e-03</internalNodes>
      <leafValues>
        3.4247988462448120e-01 -6.4116276800632477e-02</leafValues></_>
    <_>
      <internalNodes>
        0 -1 25443 4.9904396291822195e-04</internalNodes>
      <leafValues>
        7.8238531947135925e-02 -3.3154574036598206e-01</leafValues></_>
    <_>
      <internalNodes>
        0 -1 21082 -1.0088660754263401e-02</internalNodes>
      <leafValues>
        5.4243332147598267e-01 -4.1974816471338272e-02</leafValues></_></weakClassifiers></stage6>
</opencv_storage>
